digraph Tree {
node [shape=box, style="filled", color="black"] ;
0 [label="cp <= 0.5\nentropy = 0.993\nsamples = 242\nvalue = [109, 133]\nclass = 1", fillcolor="#dbedfa"] ;
1 [label="caa <= 0.5\nentropy = 0.87\nsamples = 110\nvalue = [78, 32]\nclass = 0", fillcolor="#f0b58a"] ;
0 -> 1 [labeldistance=2.5, labelangle=45, headlabel="True"] ;
2 [label="exng <= 0.5\nentropy = 0.998\nsamples = 53\nvalue = [25, 28]\nclass = 1", fillcolor="#eaf4fc"] ;
1 -> 2 ;
3 [label="thall <= 2.5\nentropy = 0.691\nsamples = 27\nvalue = [5, 22]\nclass = 1", fillcolor="#66b3eb"] ;
2 -> 3 ;
4 [label="chol <= 316.5\nentropy = 0.286\nsamples = 20\nvalue = [1, 19]\nclass = 1", fillcolor="#43a2e6"] ;
3 -> 4 ;
5 [label="entropy = 0.0\nsamples = 18\nvalue = [0, 18]\nclass = 1", fillcolor="#399de5"] ;
4 -> 5 ;
6 [label="age <= 61.5\nentropy = 1.0\nsamples = 2\nvalue = [1, 1]\nclass = 0", fillcolor="#ffffff"] ;
4 -> 6 ;
7 [label="entropy = 0.0\nsamples = 1\nvalue = [1, 0]\nclass = 0", fillcolor="#e58139"] ;
6 -> 7 ;
8 [label="entropy = 0.0\nsamples = 1\nvalue = [0, 1]\nclass = 1", fillcolor="#399de5"] ;
6 -> 8 ;
9 [label="restecg <= 0.5\nentropy = 0.985\nsamples = 7\nvalue = [4, 3]\nclass = 0", fillcolor="#f8e0ce"] ;
3 -> 9 ;
10 [label="entropy = 0.0\nsamples = 3\nvalue = [3, 0]\nclass = 0", fillcolor="#e58139"] ;
9 -> 10 ;
11 [label="age <= 41.0\nentropy = 0.811\nsamples = 4\nvalue = [1, 3]\nclass = 1", fillcolor="#7bbeee"] ;
9 -> 11 ;
12 [label="entropy = 0.0\nsamples = 1\nvalue = [1, 0]\nclass = 0", fillcolor="#e58139"] ;
11 -> 12 ;
13 [label="entropy = 0.0\nsamples = 3\nvalue = [0, 3]\nclass = 1", fillcolor="#399de5"] ;
11 -> 13 ;
14 [label="oldpeak <= 0.7\nentropy = 0.779\nsamples = 26\nvalue = [20, 6]\nclass = 0", fillcolor="#eda774"] ;
2 -> 14 ;
15 [label="thalachh <= 147.5\nentropy = 0.991\nsamples = 9\nvalue = [4, 5]\nclass = 1", fillcolor="#d7ebfa"] ;
14 -> 15 ;
16 [label="slp <= 1.5\nentropy = 0.811\nsamples = 4\nvalue = [3, 1]\nclass = 0", fillcolor="#eeab7b"] ;
15 -> 16 ;
17 [label="entropy = 0.0\nsamples = 3\nvalue = [3, 0]\nclass = 0", fillcolor="#e58139"] ;
16 -> 17 ;
18 [label="entropy = 0.0\nsamples = 1\nvalue = [0, 1]\nclass = 1", fillcolor="#399de5"] ;
16 -> 18 ;
19 [label="age <= 40.0\nentropy = 0.722\nsamples = 5\nvalue = [1, 4]\nclass = 1", fillcolor="#6ab6ec"] ;
15 -> 19 ;
20 [label="entropy = 0.0\nsamples = 1\nvalue = [1, 0]\nclass = 0", fillcolor="#e58139"] ;
19 -> 20 ;
21 [label="entropy = 0.0\nsamples = 4\nvalue = [0, 4]\nclass = 1", fillcolor="#399de5"] ;
19 -> 21 ;
22 [label="trtbps <= 115.0\nentropy = 0.323\nsamples = 17\nvalue = [16, 1]\nclass = 0", fillcolor="#e78945"] ;
14 -> 22 ;
23 [label="entropy = 0.0\nsamples = 1\nvalue = [0, 1]\nclass = 1", fillcolor="#399de5"] ;
22 -> 23 ;
24 [label="entropy = 0.0\nsamples = 16\nvalue = [16, 0]\nclass = 0", fillcolor="#e58139"] ;
22 -> 24 ;
25 [label="exng <= 0.5\nentropy = 0.367\nsamples = 57\nvalue = [53, 4]\nclass = 0", fillcolor="#e78b48"] ;
1 -> 25 ;
26 [label="trtbps <= 132.5\nentropy = 0.65\nsamples = 24\nvalue = [20, 4]\nclass = 0", fillcolor="#ea9a61"] ;
25 -> 26 ;
27 [label="sex <= 0.5\nentropy = 0.89\nsamples = 13\nvalue = [9, 4]\nclass = 0", fillcolor="#f1b991"] ;
26 -> 27 ;
28 [label="entropy = 0.0\nsamples = 3\nvalue = [0, 3]\nclass = 1", fillcolor="#399de5"] ;
27 -> 28 ;
29 [label="trtbps <= 109.0\nentropy = 0.469\nsamples = 10\nvalue = [9, 1]\nclass = 0", fillcolor="#e88f4f"] ;
27 -> 29 ;
30 [label="caa <= 2.0\nentropy = 1.0\nsamples = 2\nvalue = [1, 1]\nclass = 0", fillcolor="#ffffff"] ;
29 -> 30 ;
31 [label="entropy = 0.0\nsamples = 1\nvalue = [1, 0]\nclass = 0", fillcolor="#e58139"] ;
30 -> 31 ;
32 [label="entropy = 0.0\nsamples = 1\nvalue = [0, 1]\nclass = 1", fillcolor="#399de5"] ;
30 -> 32 ;
33 [label="entropy = 0.0\nsamples = 8\nvalue = [8, 0]\nclass = 0", fillcolor="#e58139"] ;
29 -> 33 ;
34 [label="entropy = 0.0\nsamples = 11\nvalue = [11, 0]\nclass = 0", fillcolor="#e58139"] ;
26 -> 34 ;
35 [label="entropy = 0.0\nsamples = 33\nvalue = [33, 0]\nclass = 0", fillcolor="#e58139"] ;
25 -> 35 ;
36 [label="oldpeak <= 1.95\nentropy = 0.786\nsamples = 132\nvalue = [31, 101]\nclass = 1", fillcolor="#76bbed"] ;
0 -> 36 [labeldistance=2.5, labelangle=-45, headlabel="False"] ;
37 [label="age <= 44.5\nentropy = 0.684\nsamples = 121\nvalue = [22, 99]\nclass = 1", fillcolor="#65b3eb"] ;
36 -> 37 ;
38 [label="entropy = 0.0\nsamples = 28\nvalue = [0, 28]\nclass = 1", fillcolor="#399de5"] ;
37 -> 38 ;
39 [label="sex <= 0.5\nentropy = 0.789\nsamples = 93\nvalue = [22, 71]\nclass = 1", fillcolor="#76bbed"] ;
37 -> 39 ;
40 [label="caa <= 0.5\nentropy = 0.384\nsamples = 40\nvalue = [3, 37]\nclass = 1", fillcolor="#49a5e7"] ;
39 -> 40 ;
41 [label="entropy = 0.0\nsamples = 28\nvalue = [0, 28]\nclass = 1", fillcolor="#399de5"] ;
40 -> 41 ;
42 [label="trtbps <= 138.0\nentropy = 0.811\nsamples = 12\nvalue = [3, 9]\nclass = 1", fillcolor="#7bbeee"] ;
40 -> 42 ;
43 [label="exng <= 0.5\nentropy = 0.971\nsamples = 5\nvalue = [3, 2]\nclass = 0", fillcolor="#f6d5bd"] ;
42 -> 43 ;
44 [label="entropy = 0.0\nsamples = 3\nvalue = [3, 0]\nclass = 0", fillcolor="#e58139"] ;
43 -> 44 ;
45 [label="entropy = 0.0\nsamples = 2\nvalue = [0, 2]\nclass = 1", fillcolor="#399de5"] ;
43 -> 45 ;
46 [label="entropy = 0.0\nsamples = 7\nvalue = [0, 7]\nclass = 1", fillcolor="#399de5"] ;
42 -> 46 ;
47 [label="age <= 56.5\nentropy = 0.941\nsamples = 53\nvalue = [19, 34]\nclass = 1", fillcolor="#a8d4f4"] ;
39 -> 47 ;
48 [label="age <= 50.5\nentropy = 0.771\nsamples = 31\nvalue = [7, 24]\nclass = 1", fillcolor="#73baed"] ;
47 -> 48 ;
49 [label="thalachh <= 169.0\nentropy = 0.994\nsamples = 11\nvalue = [5, 6]\nclass = 1", fillcolor="#deeffb"] ;
48 -> 49 ;
50 [label="oldpeak <= 0.3\nentropy = 0.863\nsamples = 7\nvalue = [5, 2]\nclass = 0", fillcolor="#efb388"] ;
49 -> 50 ;
51 [label="thalachh <= 154.0\nentropy = 0.918\nsamples = 3\nvalue = [1, 2]\nclass = 1", fillcolor="#9ccef2"] ;
50 -> 51 ;
52 [label="entropy = 0.0\nsamples = 1\nvalue = [1, 0]\nclass = 0", fillcolor="#e58139"] ;
51 -> 52 ;
53 [label="entropy = 0.0\nsamples = 2\nvalue = [0, 2]\nclass = 1", fillcolor="#399de5"] ;
51 -> 53 ;
54 [label="entropy = 0.0\nsamples = 4\nvalue = [4, 0]\nclass = 0", fillcolor="#e58139"] ;
50 -> 54 ;
55 [label="entropy = 0.0\nsamples = 4\nvalue = [0, 4]\nclass = 1", fillcolor="#399de5"] ;
49 -> 55 ;
56 [label="caa <= 0.5\nentropy = 0.469\nsamples = 20\nvalue = [2, 18]\nclass = 1", fillcolor="#4fa8e8"] ;
48 -> 56 ;
57 [label="entropy = 0.0\nsamples = 14\nvalue = [0, 14]\nclass = 1", fillcolor="#399de5"] ;
56 -> 57 ;
58 [label="chol <= 251.0\nentropy = 0.918\nsamples = 6\nvalue = [2, 4]\nclass = 1", fillcolor="#9ccef2"] ;
56 -> 58 ;
59 [label="entropy = 0.0\nsamples = 4\nvalue = [0, 4]\nclass = 1", fillcolor="#399de5"] ;
58 -> 59 ;
60 [label="entropy = 0.0\nsamples = 2\nvalue = [2, 0]\nclass = 0", fillcolor="#e58139"] ;
58 -> 60 ;
61 [label="chol <= 245.5\nentropy = 0.994\nsamples = 22\nvalue = [12, 10]\nclass = 0", fillcolor="#fbeade"] ;
47 -> 61 ;
62 [label="thalachh <= 148.0\nentropy = 0.89\nsamples = 13\nvalue = [4, 9]\nclass = 1", fillcolor="#91c9f1"] ;
61 -> 62 ;
63 [label="entropy = 0.0\nsamples = 6\nvalue = [0, 6]\nclass = 1", fillcolor="#399de5"] ;
62 -> 63 ;
64 [label="caa <= 0.5\nentropy = 0.985\nsamples = 7\nvalue = [4, 3]\nclass = 0", fillcolor="#f8e0ce"] ;
62 -> 64 ;
65 [label="thalachh <= 152.0\nentropy = 0.811\nsamples = 4\nvalue = [1, 3]\nclass = 1", fillcolor="#7bbeee"] ;
64 -> 65 ;
66 [label="entropy = 0.0\nsamples = 1\nvalue = [1, 0]\nclass = 0", fillcolor="#e58139"] ;
65 -> 66 ;
67 [label="entropy = 0.0\nsamples = 3\nvalue = [0, 3]\nclass = 1", fillcolor="#399de5"] ;
65 -> 67 ;
68 [label="entropy = 0.0\nsamples = 3\nvalue = [3, 0]\nclass = 0", fillcolor="#e58139"] ;
64 -> 68 ;
69 [label="trtbps <= 119.0\nentropy = 0.503\nsamples = 9\nvalue = [8, 1]\nclass = 0", fillcolor="#e89152"] ;
61 -> 69 ;
70 [label="entropy = 0.0\nsamples = 1\nvalue = [0, 1]\nclass = 1", fillcolor="#399de5"] ;
69 -> 70 ;
71 [label="entropy = 0.0\nsamples = 8\nvalue = [8, 0]\nclass = 0", fillcolor="#e58139"] ;
69 -> 71 ;
72 [label="slp <= 0.5\nentropy = 0.684\nsamples = 11\nvalue = [9, 2]\nclass = 0", fillcolor="#eb9d65"] ;
36 -> 72 ;
73 [label="entropy = 0.0\nsamples = 2\nvalue = [0, 2]\nclass = 1", fillcolor="#399de5"] ;
72 -> 73 ;
74 [label="entropy = 0.0\nsamples = 9\nvalue = [9, 0]\nclass = 0", fillcolor="#e58139"] ;
72 -> 74 ;
}